3-10-3
4.655270035562649
-2.9880703981257053
-1.401599737732764
4.4768891961740716
5.459359686694977
3.1857808481047942
6.316962890382215
-1.7580818544970962
-0.5860732171581955
-0.767482929269092
4.600225938925141
7.038097274318628
1.9328344159836137
4.3404713870818545
-2.8373181365530766
-0.0637115117139206
-3.311470326927675
3.241325378075883
-4.405285139945876
0.5072756326093654
-0.5784404937608428
-0.626177082739289
-4.988365635254073
0.39348507707887537
1.1583928292495151
2.6916176837113053
1.4356218323133432
0.3752881185909237
1.2747684240462225
-3.4583897166648203
8.746744402951636
1.238739898180311
1.2787181093594662
-7.945390560215312
3.6366845012150577
-0.28425799321984563
-1.4591812720632722
-8.467579038570598
-7.340144114959713
8.489926769791456
0.11016313210509512
1.9637660360494125
-5.236171576955609
-2.0488756416585385
1.689120150105056
0.14372880633125412
0.3743989356630701
3.958375328878987
-6.337364667034707
-0.2548311968702439
3.5865546584269397
-2.853555610808964
1.5820724960614445
-0.3085039069145674
-0.449371006335424
-7.0553289036369735
-5.749494542541406
-0.750126623925629
-7.252238389446831
-6.23819541419173
