2-5-100-3
-0.05269297473688439
0.047542936243726665
-4.101417436971697
1.4088770102699417
-3.353540191155338
3.186895727583853
1.5091412289216544
-0.6347212628148848
-3.8557820312572413
0.5144651331718727
0.18859241417959755
-0.16149054952263642
1.265298100231669
-0.8179665507468599
-1.3924174557993638
1.0393913959097718
1.5591578018030607
0.7590208561929083
-1.6557671831723855
0.9529686271715756
0.8483341358685798
-0.6316373826212441
0.9515992788686988
-1.3130103480600719
0.8497709248717826
-1.2188669088940316
-1.7020428439515098
0.7707321281857531
0.758907115702155
-0.5473934899228811
0.7417179919115183
-1.4509397903122037
0.570387051159329
-0.03869719916623308
-0.07550676161529642
1.6290259287787563
-1.6116826516635445
1.185608217901832
-0.9563852220422139
0.9538326524240183
0.316239376808214
0.7424469187257059
0.7330005888615414
-1.8851310147834297
-0.8624834245262094
-0.8465744618468688
-0.8370006461192179
-0.49235786362926387
-1.1674630788975304
-1.3039822112492672
-0.34213681301349536
1.420892408161927
-0.3218026657376336
0.8856258678306851
-0.010819068099904385
1.4682948795848698
1.3600651719616108
1.1272144176199006
1.5234562484334613
-1.0320410323992366
0.3798697069025047
0.9359540120268572
-0.11754851523259613
-1.3292235643549335
-0.6735763543453639
0.5825696275845121
0.6796607221180261
1.0179104959865108
-0.8024870099651621
0.892235550700538
-0.13664385572924737
0.3417963155307783
-1.0267065857536535
0.8119170678892343
1.5134239518567238
0.09475913980827701
-0.5403770839349219
0.9370795619834853
0.5290233145881841
-1.1423614467915173
0.5351724694962176
-0.45721867280891554
0.6576622238492907
-0.3418077624162977
1.5515536451475525
-0.7764911573201914
-1.477212185847591
-0.8695407227066316
1.171723705580945
-1.192728367619737
-1.1859132233808694
0.7982449967226123
-0.5619794997189654
0.4472159350881936
0.35695715455177773
0.5980954275089396
0.7978085062279685
1.3158913377538226
-0.9861468669929873
-1.2843737239274722
-1.3839190651151017
0.42004534355798945
-1.2132928251106205
-0.9280837183726279
1.1197207119137047
-1.1632896834008928
1.2185581491708746
-0.14888663197885205
0.1758988034157188
-0.7662852510197866
0.9662497689218997
1.549763902383004
1.3016538726229712
-0.857933792200046
0.24835024120612423
0.9810095186030939
-0.6965878525451348
0.08429775901055145
-0.8851933907972932
1.324912680808933
0.45512484760003974
-0.9949837564540426
0.7269333303518467
-1.2619268875302274
1.1301366323415445
-1.3178240983793512
0.9900655463923124
0.9570554329735701
0.18294748140760575
-1.0590095673266737
0.3997248361658701
-0.39297387205639533
-0.9264221835494896
0.38450086484591495
0.9669396068686201
-0.1484964018547844
0.32422776444537604
-1.1343347126642744
-0.9504101696371866
-0.07935433335898866
-0.04725389817480441
-0.618130387308713
0.48135011750064927
0.6402200766342739
-0.6190964411250494
1.1247708353176475
0.5403912373121154
-1.2136835543113678
0.6177413351353496
-0.8786616609331913
0.8467966665845105
0.05289773737925543
-1.4507582862719826
-0.32822220391374657
1.2972786027723278
0.6668887043574258
0.45147311378895844
-0.45523832949588894
-0.4090001393739318
-0.5553682864560833
0.3772645987709147
0.8615945819931958
-0.1210335955374767
-0.343135017554485
0.18611505362136213
-0.6214693839581096
-1.5259915569218132
0.21281505171146528
0.28008953327671665
-0.04206080191769775
-0.4373956243707578
-0.7141426397780264
0.7647382972009023
0.9169057416476621
-0.432837404728068
-0.8478809339081633
-0.5975419447191496
0.5727059984078927
-0.503068050833493
-1.0879781280227714
0.9749922840350956
0.3443929631704773
0.19285230054127453
0.9392762038069077
0.703060938489377
1.3161780556438638
0.7912569161925942
0.8296054470900281
0.15500110047196114
-0.39156452268338976
-1.4462365670766348
-0.1864451711941192
-1.2676613598913906
-0.4771079280439629
-0.2710689055939278
-0.18936277341946706
1.4647046783980426
-0.23791916941307145
-0.5919263410578545
0.26031938123909437
-0.6569504173298572
-1.6572865896694662
-0.56109382976436
-0.9431495213889601
-1.3953297599358094
-1.3321271664844163
-0.8138878541102319
1.1744896737963457
-1.0217048813384555
-1.1304795642169874
-0.3310325224819009
-1.961679175510815
-2.4217847784408235
1.470377009044463
1.3539157302793634
-0.13736090688443475
1.0036255861655166
-1.6406771745787962
-1.050915567013856
0.4598750521532856
-1.5255548092979754
1.772419955546321
1.8658658634666185
-0.9736548041505713
2.026375371310063
-0.773832145232517
1.3099497016653618
-0.7989192991328722
1.6221740192751606
-0.7722873815415126
1.1026188928534437
0.027748396230910237
-1.6407046439734494
-0.3951878565154827
-1.951377983021576
-1.0963229865515172
1.5936568526172354
-1.2023836281833993
-0.47430509497696827
-1.2103697084149931
0.7158476736090423
0.8875945488898456
-1.8770770287428347
-0.4167802234214842
-0.9972294476131411
-0.36926042914775664
1.5253763341962092
-0.0051562219498157225
-0.3202865309452891
-0.6696778809230604
2.1045243626524583
0.1016182280748088
1.7069158527153803
-1.3408780150348918
0.21962938100596993
-1.8130050908351352
-0.876971410451735
-1.0153183745615477
-2.6123604638765316
1.478013214405653
-1.28965178673672
1.3045582799509894
1.5822774723715523
0.9628395573065557
1.0501185014634151
-1.873423083375476
0.1931226096019079
-0.7785074626127146
-1.0932149252456471
0.8187823817747414
-0.013867999288760015
0.751485737924815
0.4344063085524952
1.2538792187897425
-0.27331372101954904
-1.1564290880152759
-1.3210074651531007
1.1275523456184748
-0.04414111774276138
0.8379192250750076
-0.665436117540124
0.9813261043095457
-1.220691102483726
-1.1182315313377904
1.5000013753146528
-1.9264120988321842
0.9815695793082753
0.6092492071578605
0.9239873007607846
-0.9264717920745148
1.185557590584405
1.5304904747883767
1.4473299729917888
0.15820788461682486
1.4521380432661968
1.3704539191445306
1.2589238845375417
-2.2105830829449147
0.695346049897287
1.9814293012935333
0.0790630599953452
1.297132706116702
-1.4505031423255963
0.9593326561356887
-1.7998811907649133
1.4186683558984814
-0.7380417680033637
-1.3003300431907046
-0.31482079105432037
-0.46444199468381403
0.09216151946452328
-0.31718529171889964
-1.6427709425595416
0.8400320649660596
-0.6751656896049374
-1.8403146602330909
1.0610094088286632
0.33103745360840886
-1.2759920275442689
-0.085284868770691
-0.6495989716822349
0.8609566778651667
-1.8609056934096684
-1.599738772674649
-1.2267307057466823
1.6663770292068816
1.868022484900723
0.9432775374617157
1.2349182731992836
-0.7933352110677411
-1.225485840542819
1.8860991071333102
0.6330333194312893
0.988807566291428
0.40148859657287717
-0.6620847322808149
1.2149630389962531
-1.2540180920451656
-0.4658339646746593
0.001662839581662099
-0.3361152449130056
0.18338457463601662
-0.498479942720629
1.6648981399483016
-0.13439616234916046
-0.6750280724001526
-1.0405419341759174
-0.3060759141583116
-0.7797737242749069
0.009806765316647868
-1.4748890294619412
-1.5027670421034658
-0.6475462427118981
0.5956487235558239
-0.2104297671228996
0.3635315752246731
-1.0957276279842731
-1.6188868050983896
1.1386538796106225
2.213350852766458
-0.10593079149735195
0.33732677296081554
1.1450055709185358
-0.6124036740767476
1.774338351534834
-0.9782191207656799
-0.17159982869633222
-0.2415428452214437
1.4037265483949721
-0.26779632853206214
0.3104303400228035
-1.7547558294853511
-0.9272685492892976
-1.8796569857568652
-1.7468123160366644
-0.31396880959895385
-0.43220481574572345
-0.4457846371264194
-1.1880961043022038
1.3491141615117275
-1.187853452453243
-0.012643270042244543
0.14939591568608065
1.070859362019559
-0.9885832499216938
0.1485823297197748
0.9549913714751506
1.048561671031872
0.5072800220010678
0.41887879274149276
0.6551411178883406
0.9736167237048534
-0.779246786992294
-0.7978776079063322
-1.4463819400320408
0.11815291607294878
0.5106169932658547
0.07894548258017398
0.01788028008591956
-0.3636376066199976
-0.5766669786233871
1.7096522341324323
1.0767287086856667
1.5367033259321974
1.5393566528043823
-0.9363545604885904
-0.24430150126251873
0.41246502064744867
0.5898638262303861
-0.9003341936850043
-0.8405901499142956
-1.2721062034435058
-1.4447172261651304
1.2834562629474053
1.5183120098746687
-0.5787273700044276
0.4496846346052922
0.32436083352868894
-0.8841404605871714
1.623476060436649
-0.334702208432255
1.7536287036120917
1.3304740262803822
0.06541841576284466
-0.6574544013726947
-0.08588559451281091
-0.805247360338729
-0.9742428794153484
-1.025977977385894
1.4344043986682793
1.522347739757746
-0.5213612197105126
-0.005928961141032975
0.8958965239866675
-0.9272767645752805
0.28228968738165083
-0.49407071831356547
-1.6660973224525393
-0.5878853315020305
-0.6709634828398567
1.2268000571818305
1.2025435979629195
-0.6200586028419672
1.7803932998181646
-1.3655666404816464
1.675512111084982
1.552872466055404
-0.06676524559519385
1.6294597222997023
-0.4272333454093146
-0.13756927065704422
0.23485937253477548
-0.6147002292919925
-0.48376325752885735
-0.4067263013682768
-0.5717342970132432
1.4358509257205299
0.46004426918267627
-2.073097187097662
1.514107851115366
-0.724962004814655
0.33943243525927524
0.057365743868785714
1.4437492234362574
1.2012857084014077
-0.1971603144625563
-0.34327645475604657
1.263584613951373
-0.7104187634495727
0.37355693694823705
-0.3443334818242198
0.9670325598311896
1.094118982474679
-0.5133190494451905
-1.0836989166247761
0.4112687706391636
-0.6886384020693775
1.3847463405862528
-0.3325037034331444
-0.45832186144517295
-1.653581723387224
1.568174831271502
1.1898697613563547
-0.3008756455821099
0.6995936345983765
-0.09146934416928551
-0.3324403403630319
1.1225551436717585
1.2718077900877347
1.426291359844051
-1.6842226466424561
1.5366005695379186
-0.7930311755840954
1.0549495984281825
-0.3612376006585324
-0.1408637063026903
0.5096541534146742
0.40746229069194134
0.8138611617486621
1.9165126560923387
-0.8583564549538337
-0.12028007530900356
0.4815036841644224
-0.4872252452712329
-0.30569455266823164
-0.8499890810507339
0.9895638762526553
-0.02115174211250672
1.779958204327382
-0.08218403230462136
-0.6104734996833906
1.6115544070398895
1.4015260830583367
0.7079720254377844
2.2996629188664013
0.29635604810386984
2.5377716382371096
3.0651911652491535
-0.8335766805752811
-1.0008026149501867
-1.7188176318922168
0.38785499959808634
-0.17547103022607916
-1.3984525909728962
-1.3584012863820114
0.8101169573483792
1.5846363943757886
-1.2266441449912766
-0.20759932271343332
1.1267988042059645
-0.8298796358008281
0.3536933715146583
1.718704797941338
0.5676610134118591
-1.2704577545477618
-1.0424563847116737
0.8439411393917647
-1.1494099872454338
-0.5188594398924976
0.11317746194894589
1.3844307957822304
1.4378998849630582
0.5593461110841343
-1.6132696404461986
-0.3057808878565619
-0.5943714342208591
1.1109718387722967
-1.763148998226655
-1.336291706610505
0.6204625631633038
-0.3577359418393045
-1.3935223448331884
-0.9932807531260656
-0.373067132608174
-1.6305277523983295
-0.5693901033447442
-1.1872375404468705
1.286499038814673
-1.3551652603183544
-1.1987249907042334
1.134055530495847
1.5763953069419168
0.47160626553146195
-0.5908626381149582
-0.18780535195392753
-1.0714412231903827
-0.3119041971561277
-1.1984045371790726
-0.9917856351270963
1.1631138653961823
-1.2951153669059836
-0.06158221424992639
-1.9308830747694048
-1.6333366369998954
-0.8962779031160412
0.4198219763750566
1.4769156999262407
0.8829981156826134
-0.15889335870651747
-0.19962493559126399
0.39724771836770895
-1.1048778120574174
0.730916442769822
1.4275067710372034
0.9990033148092462
-0.34839508955841114
1.9813167351968062
-0.04085895436101341
-1.375334890612388
-1.4744377263839514
0.5706144021694775
1.5578818557060847
-0.25891915692157663
-0.25857007699929546
-0.00963139157470191
1.3420396879517622
0.9512521768460497
1.5971154074522003
0.20434054374116534
0.0210499247637161
-1.4630953729133067
0.04257388990361069
-1.0994168887533748
-1.3302879296834045
0.2319791275624908
-1.2018994736586028
1.8357931533951348
1.2255196548046388
0.7044390116476363
-2.0610923621200827
-1.6688463382925511
1.3738425630098254
-0.445872980006849
1.0361504265273735
0.5519010810384524
0.23219667845094796
-0.29296513392598383
-1.6049085150922517
-1.8438295891242287
-0.3344340859499334
0.017561361709702298
0.13063664607946507
0.1793399876318092
-0.06680879182427746
-1.4456325839149533
0.24639572886005282
-0.5846636093192396
0.18883202824081383
0.3174275611468909
1.3648983676450532
-0.360323931129031
-1.0243826241977103
-1.438787517310763
0.2216320202900961
1.5207529116193983
-0.5299451686394424
-1.3233987794838855
-1.0235914571757834
0.8139207805806926
0.7902453568365646
1.3719447249751413
0.9977239557977473
0.91012156633404
0.5099696953000368
-0.16401560726327483
0.5961693880004098
2.269772549420343
-0.5082802394344795
-0.824827620720828
1.1980044983252605
-1.2773102148084332
0.16545349856502756
0.7170171265843648
-1.4299793373234722
1.8543582999715924
2.216128475739283
2.2446058467067997
-2.464834052354904
-0.8041491038422854
1.3172818507003985
1.8266115303652164
1.2272082550564416
0.6760253046612844
-0.6026860726884439
-1.3247372355573976
0.9945902943242508
-1.8458003872065258
-0.5180682509620053
0.10272933671526885
0.6891680272333653
-1.7223581053250232
-1.6025639075760678
-2.4127859504223665
0.6654031689025575
0.8513375549385667
2.023635356551694
0.2134168167195644
1.1563699693337328
0.40375007889805636
-0.6051028695096691
0.6111696414594022
0.9110952724216133
-0.011147089469316817
-0.44207951100058634
-0.9256361210396362
-0.7383253439964209
2.1801448342613967
-0.17792692064891266
-1.0645250279663923
-1.3454957214299406
-1.2402602379852259
0.8435997987369652
0.028867781705454267
0.24324231234346486
0.880611435809526
-1.6043441698137797
-1.8614513749223094
0.9537535531692986
0.7932503743503924
0.370543119656574
0.5425450916211155
-1.7089748188478355
2.2367748604898656
0.06831196371013648
-0.6415124011657802
-0.8479152166966524
1.2270743739929026
1.2906978628513697
0.0828924737695967
1.0508630803045738
0.5745642549455193
1.210351266358001
-0.9275841567709545
-0.8219433784903378
0.04920901399572152
0.17752497046751714
-0.231081457676321
-1.8004189795889498
-1.5033253710458216
-0.7039314278593557
2.157919935061474
1.2637839335283538
-1.0355166645530918
-0.3336112362571329
-0.8530593697250116
-0.31392305657526487
-0.401954917419897
0.7035810309898967
0.09032687345948273
-0.07085280561978609
1.5348642149665643
-0.4867810427305726
1.6153473662355275
-0.9083613925458343
-0.44299209512004484
-0.34431779859016326
1.9193238954975722
1.5854739830310285
-0.02836114066457599
-1.3031276476340905
-0.5941895821033382
-1.3440242033765029
-0.48073538228518736
1.226171672685554
1.150500496785265
-1.1839445434984783
0.03376669000330418
0.33947188340011386
-1.438737634194024
0.9816366876378932
0.2669505161387614
1.0075146559004031
-1.0063019116228122
-0.3058943445265418
-0.9056634891546458
-1.226907489123749
-0.9641247879143173
-1.3578469206082304
-0.43971241486904306
-1.036140459696632
0.363611049800605
-1.1068862511655801
-1.1354058259836584
1.3176938540075516
-1.8622314776951545
-1.099955531901661
-1.1350574261130464
-0.46056627849808135
0.5416907969896531
-0.1601261424159961
0.6264475836937291
0.9865457356826923
2.0251737648534616
1.4172277639145092
-1.663341138225294
-1.333443886190276
0.681279568687983
-2.133544469583878
-0.5128594413059121
-1.5463246732440497
0.9486835897346343
-0.9020552763363678
1.4735907955032785
-0.4236524053068724
-1.425849437977345
1.5583365321153264
-0.18363771482211794
-0.31392297018117915
2.0031927484151315
0.21650828615838635
-1.1028955506109317
1.2199604458534152
0.15863845523383854
0.8152979576000745
1.9589131172959704
-0.7008228976017843
-1.1188559634994164
1.3514301188114657
0.21248213447496433
-0.07243725647983876
0.16564736338879035
-0.11143006536229995
1.0442927606757488
1.0003275595985157
-1.176794341976057
-1.0854070730546264
-1.051466483518299
1.3779052957234186
1.369801332995238
-1.2621566116154086
